<?xml version="1.0"?>
<opencv_storage>
<stage4>
  <maxWeakCount>5</maxWeakCount>
  <stageThreshold>-2.0352244377136230e+00</stageThreshold>
  <weakClassifiers>
    <_>
      <internalNodes>
        0 -1 52718 -2.1633496880531311e-01</internalNodes>
      <leafValues>
        1. -7.7147918939590454e-01</leafValues></_>
    <_>
      <internalNodes>
        0 -1 84 -5.5662740487605333e-04</internalNodes>
      <leafValues>
        -9.0810543298721313e-01 2.8151729702949524e-01</leafValues></_>
    <_>
      <internalNodes>
        0 -1 60488 1.1195901315659285e-03</internalNodes>
      <leafValues>
        2.8877276182174683e-01 -9.1571462154388428e-01</leafValues></_>
    <_>
      <internalNodes>
        0 -1 103903 7.2229781653732061e-04</internalNodes>
      <leafValues>
        2.7953362464904785e-01 -8.9637446403503418e-01</leafValues></_>
    <_>
      <internalNodes>
        0 -1 6887 2.5648386217653751e-03</internalNodes>
      <leafValues>
        2.6682651042938232e-01 -9.8224562406539917e-01</leafValues></_></weakClassifiers></stage4>
</opencv_storage>
