<?xml version="1.0"?>
<opencv_storage>
<stage3>
  <maxWeakCount>5</maxWeakCount>
  <stageThreshold>-1.9456591606140137e+00</stageThreshold>
  <weakClassifiers>
    <_>
      <internalNodes>
        0 -1 24522 -2.8277999162673950e-01</internalNodes>
      <leafValues>
        6.0305345058441162e-01 -8.2226377725601196e-01</leafValues></_>
    <_>
      <internalNodes>
        0 -1 30324 -1.8853190541267395e-01</internalNodes>
      <leafValues>
        4.4820258021354675e-01 -6.8703413009643555e-01</leafValues></_>
    <_>
      <internalNodes>
        0 -1 84 4.3277593795210123e-04</internalNodes>
      <leafValues>
        2.7689772844314575e-01 -1.</leafValues></_>
    <_>
      <internalNodes>
        0 -1 84 -7.2127179009839892e-04</internalNodes>
      <leafValues>
        -9.3889933824539185e-01 3.1828379631042480e-01</leafValues></_>
    <_>
      <internalNodes>
        0 -1 94693 6.2463973881676793e-04</internalNodes>
      <leafValues>
        2.2564038634300232e-01 -9.7040271759033203e-01</leafValues></_></weakClassifiers></stage3>
</opencv_storage>
